{
  "learner": {
    "attributes": {},
    "feature_names": [],
    "feature_types": [],
    "gradient_booster": {
      "model": {
        "gbtree_model_param": {
          "num_parallel_tree": "1",
          "num_trees": "149"
        },
        "iteration_indptr": [
          0,
          1,
          2,
          3,
          4,
          5,
          6,
          7,
          8,
          9,
          10,
          11,
          12,
          13,
          14,
          15,
          16,
          17,
          18,
          19,
          20,
          21,
          22,
          23,
          24,
          25,
          26,
          27,
          28,
          29,
          30,
          31,
          32,
          33,
          34,
          35,
          36,
          37,
          38,
          39,
          40,
          41,
          42,
          43,
          44,
          45,
          46,
          47,
          48,
          49,
          50,
          51,
          52,
          53,
          54,
          55,
          56,
          57,
          58,
          59,
          60,
          61,
          62,
          63,
          64,
          65,
          66,
          67,
          68,
          69,
          70,
          71,
          72,
          73,
          74,
          75,
          76,
          77,
          78,
          79,
          80,
          81,
          82,
          83,
          84,
          85,
          86,
          87,
          88,
          89,
          90,
          91,
          92,
          93,
          94,
          95,
          96,
          97,
          98,
          99,
          100,
          101,
          102,
          103,
          104,
          105,
          106,
          107,
          108,
          109,
          110,
          111,
          112,
          113,
          114,
          115,
          116,
          117,
          118,
          119,
          120,
          121,
          122,
          123,
          124,
          125,
          126,
          127,
          128,
          129,
          130,
          131,
          132,
          133,
          134,
          135,
          136,
          137,
          138,
          139,
          140,
          141,
          142,
          143,
          144,
          145,
          146,
          147,
          148,
          149
        ],
        "tree_info": [
          0,
          0,
          0,
          0,
          0,
          0,
          0,
          0,
          0,
          0,
          0,
          0,
          0,
          0,
          0,
          0,
          0,
          0,
          0,
          0,
          0,
          0,
          0,
          0,
          0,
          0,
          0,
          0,
          0,
          0,
          0,
          0,
          0,
          0,
          0,
          0,
          0,
          0,
          0,
          0,
          0,
          0,
          0,
          0,
          0,
          0,
          0,
          0,
          0,
          0,
          0,
          0,
          0,
          0,
          0,
          0,
          0,
          0,
          0,
          0,
          0,
          0,
          0,
          0,
          0,
          0,
          0,
          0,
          0,
          0,
          0,
          0,
          0,
          0,
          0,
          0,
          0,
          0,
          0,
          0,
          0,
          0,
          0,
          0,
          0,
          0,
          0,
          0,
          0,
          0,
          0,
          0,
          0,
          0,
          0,
          0,
          0,
          0,
          0,
          0,
          0,
          0,
          0,
          0,
          0,
          0,
          0,
          0,
          0,
          0,
          0,
          0,
          0,
          0,
          0,
          0,
          0,
          0,
          0,
          0,
          0,
          0,
          0,
          0,
          0,
          0,
          0,
          0,
          0,
          0,
          0,
          0,
          0,
          0,
          0,
          0,
          0,
          0,
          0,
          0,
          0,
          0,
          0,
          0,
          0,
          0,
          0,
          0,
          0
        ],
        "trees": [
          {
            "base_weights": [
              0.00022326832,
              -0.3914982,
              0.16969751,
              -0.3057311,
              -0.9561901,
              0.2447164,
              -0.6933718,
              -0.5991797,
              -0.10236834,
              -1.533239,
              -0.7884375,
              -0.5161372,
              0.30030182,
              -0.04646008,
              -0.96264523,
              -0.032585077,
              0.043110516,
              -0.016897297,
              0.007849069,
              0.00961239,
              -0.082600415,
              -0.043676745,
              0.009397159,
              -0.0106210215,
              -0.041290198,
              -0.013190316,
              0.019208195,
              -0.033082794,
              0.02886031,
              -0.05812772,
              0.011292408
            ],
            "categories": [],
            "categories_nodes": [],
            "categories_segments": [],
            "categories_sizes": [],
            "default_left": [
              0,
              0,
              0,
              0,
              0,
              0,
              0,
              0,
              0,
              0,
              0,
              0,
              0,
              0,
              0,
              0,
              0,
              0,
              0,
              0,
              0,
              0,
              0,
              0,
              0,
              0,
              0,
              0,
              0,
              0,
              0
            ],
            "id": 0,
            "left_children": [
              1,
              3,
              5,
              7,
              9,
              11,
              13,
              15,
              17,
              19,
              21,
              23,
              25,
              27,
              29,
              -1,
              -1,
              -1,
              -1,
              -1,
              -1,
              -1,
              -1,
              -1,
              -1,
              -1,
              -1,
              -1,
              -1,
              -1,
              -1
            ],
            "loss_changes": [
              477.90488,
              104.99643,
              325.51135,
              112.65399,
              26.493713,
              195.70438,
              69.99921,
              59.88855,
              68.28834,
              13.310043,
              18.757584,
              29.466217,
              203.97626,
              46.127815,
              67.70697,
              0.0,
              0.0,
              0.0,
              0.0,
              0.0,
              0.0,
              0.0,
              0.0,
              0.0,
              0.0,
              0.0,
              0.0,
              0.0,
              0.0,
              0.0,
              0.0
            ],
            "parents": [
              2147483647,
              0,
              0,
              1,
              1,
              2,
              2,
              3,
              3,
              4,
              4,
              5,
              5,
              6,
              6,
              7,
              7,
              8,
              8,
              9,
              9,
              10,
              10,
              11,
              11,
              12,
              12,
              13,
              13,
              14,
              14
            ],
            "right_children": [
              2,
              4,
              6,
              8,
              10,
              12,
              14,
              16,
              18,
              20,
              22,
              24,
              26,
              28,
              30,
              -1,
              -1,
              -1,
              -1,
              -1,
              -1,
              -1,
              -1,
              -1,
              -1,
              -1,
              -1,
              -1,
              -1,
              -1,
              -1
            ],
            "split_conditions": [
              -0.4363282,
              0.16837013,
              1.2980556,
              -0.9094569,
              -0.23795466,
              -1.3252572,
              -0.40697077,
              2.506921,
              0.0071775666,
              -0.5613041,
              1.6471665,
              0.7432906,
              -0.97332907,
              -0.23609461,
              0.74889857,
              -0.032585077,
              0.043110516,
              -0.016897297,
              0.007849069,
              0.00961239,
              -0.082600415,
              -0.043676745,
              0.009397159,
              -0.0106210215,
              -0.041290198,
              -0.013190316,
              0.019208195,
              -0.033082794,
              0.02886031,
              -0.05812772,
              0.011292408
            ],
            "split_indices": [
              1172,
              939,
              288,
              1081,
              2003,
              1174,
              723,
              1173,
              761,
              921,
              452,
              1283,
              186,
              1269,
              1106,
              0,
              0,
              0,
              0,
              0,
              0,
              0,
              0,
              0,
              0,
              0,
              0,
              0,
              0,
              0,
              0
            ],
            "split_type": [
              0,
              0,
              0,
              0,
              0,
              0,
              0,
              0,
              0,
              0,
              0,
              0,
              0,
              0,
              0,
              0,
              0,
              0,
              0,
              0,
              0,
              0,
              0,
              0,
              0,
              0,
              0,
              0,
              0,
              0,
              0
            ],
            "sum_hessian": [
              7196.8037,
              2172.951,
              5023.8525,
              1887.7719,
              285.17917,
              4622.7544,
              401.0982,
              771.93616,
              1115.8357,
              62.39792,
              222.78123,
              314.16565,
              4308.589,
              118.23028,
              282.86795,
              745.69037,
              26.245808,
              584.55676,
              531.27893,
              3.9785585,
              58.41936,
              205.01804,
              17.763208,
              159.45775,
              154.7079,
              557.3516,
              3751.237,
              59.48866,
              58.741615,
              242.15787,
              40.71007
            ],
            "tree_param": {
              "num_deleted": "0",
              "num_feature": "2161",
              "num_nodes": "31",
              "size_leaf_vector": "1"
            }
          },
          {
            "base_weights": [
              0.0021379357,
              0.11445632,
              -0.5113315,
              -0.24338636,
              0.27577552,
              -0.4040813,
              -1.2062582,
              -0.99372333,
              -0.16876382,
              0.23802754,
              1.1032609,
              -0.46957684,
              0.5601953,
              -1.4930911,
              -0.8038064,
              -0.054516584,
              0.023347076,
              -0.010768049,
              0.04028143,
              0.022620102,
              0.004220117,
              0.06651097,
              -0.068668455,
              -0.015315779,
              -0.04319246,
              -0.032666456,
              0.04380377,
              0.009683959,
              -0.078690305,
              0.008912325,
              -0.05360808
            ],
            "categories": [],
            "categories_nodes": [],
            "categories_segments": [],
            "categories_sizes": [],
            "default_left": [
              0,
              0,
              0,
              0,
              0,
              0,
              0,
              0,
              0,
              0,
              0,
              0,
              0,
              0,
              0,
              0,
              0,
              0,
              0,
              0,
              0,
              0,
              0,
              0,
              0,
              0,
              0,
              0,
              0,
              0,
              0
            ],
            "id": 1,
            "left_children": [
              1,
              3,
              5,
              7,
              9,
              11,
              13,
              15,
              17,
              19,
              21,
              23,
              25,
              27,
              29,
              -1,
              -1,
              -1,
              -1,
              -1,
              -1,
              -1,
              -1,
              -1,
              -1,
              -1,
              -1,
              -1,
              -1,
              -1,
              -1
            ],
            "loss_changes": [
              415.92514,
              341.66434,
              95.986725,
              102.81664,
              127.155,
              71.178024,
              18.71936,
              23.95752,
              76.18417,
              128.48454,
              101.70531,
              67.451065,
              28.1229,
              13.863113,
              19.685883,
              0.0,
              0.0,
              0.0,
              0.0,
              0.0,
              0.0,
              0.0,
              0.0,
              0.0,
              0.0,
              0.0,
              0.0,
              0.0,
              0.0,
              0.0,
              0.0
            ],
            "parents": [
              2147483647,
              0,
              0,
              1,
              1,
              2,
              2,
              3,
              3,
              4,
              4,
              5,
              5,
              6,
              6,
              7,
              7,
              8,
              8,
              9,
              9,
              10,
              10,
              11,
              11,
              12,
              12,
              13,
              13,
              14,
              14
            ],
            "right_children": [
              2,
              4,
              6,
              8,
              10,
              12,
              14,
              16,
              18,
              20,
              22,
              24,
              26,
              28,
              30,
              -1,
              -1,
              -1,
              -1,
              -1,
              -1,
              -1,
              -1,
              -1,
              -1,
              -1,
              -1,
              -1,
              -1,
              -1,
              -1
            ],
            "split_conditions": [
              0.059392776,
              -0.5344518,
              1.3346235,
              -1.4743475,
              1.7228323,
              1.1826746,
              0.054510046,
              1.0591253,
              0.9019769,
              -0.23386453,
              1.1544371,
              0.30188423,
              -0.9525881,
              -1.9419086,
              -0.8966905,
              -0.054516584,
              0.023347076,
              -0.010768049,
              0.04028143,
              0.022620102,
              0.004220117,
              0.06651097,
              -0.068668455,
              -0.015315779,
              -0.04319246,
              -0.032666456,
              0.04380377,
              0.009683959,
              -0.078690305,
              0.008912325,
              -0.05360808
            ],
            "split_indices": [
              142,
              1,
              189,
              1104,
              1084,
              182,
              16,
              756,
              452,
              905,
              469,
              773,
              453,
              277,
              206,
              0,
              0,
              0,
              0,
              0,
              0,
              0,
              0,
              0,
              0,
              0,
              0,
              0,
              0,
              0,
              0
            ],
            "split_type": [
              0,
              0,
              0,
              0,
              0,
              0,
              0,
              0,
              0,
              0,
              0,
              0,
              0,
              0,
              0,
              0,
              0,
              0,
              0,
              0,
              0,
              0,
              0,
              0,
              0,
              0,
              0,
              0,
              0,
              0,
              0
            ],
            "sum_hessian": [
              7209.886,
              5916.4707,
              1293.4156,
              1838.2673,
              4078.2034,
              1121.8573,
              171.55829,
              165.16818,
              1673.0991,
              3901.513,
              176.69041,
              1050.9854,
              70.87193,
              98.585236,
              72.97305,
              155.15947,
              10.008709,
              1597.4836,
              75.61552,
              1627.9143,
              2273.5986,
              162.2818,
              14.408625,
              744.4844,
              306.50098,
              14.417103,
              56.45483,
              4.4381375,
              94.1471,
              15.733103,
              57.23995
            ],
            "tree_param": {
              "num_deleted": "0",
              "num_feature": "2161",
              "num_nodes": "31",
              "size_leaf_vector": "1"
            }
          },
          {
            "base_weights": [
              -0.0044912687,
              -0.3609311,
              0.14851058,
              -0.23065574,
              -0.69968754,
              0.22148935,
              -0.639676,
              -0.51206744,
              -0.057142552,
              -0.49572477,
              -1.0528058,
              -0.27081898,
              0.29569566,
              0.5766154,
              -0.7788257,
              -0.0299042,
              0.048227742,
              0.015322814,
              -0.01342303,
              -0.07645365,
              -0.020372218,
              -0.056594957,
              -0.0042030206,
              0.015498282,
              -0.03528463,
              -0.022489473,
              0.017813707,
              0.060702473,
              -0.04224347,
              -0.06020841,
              -0.016094321
            ],
            "categories": [],
            "categories_nodes": [],
            "categories_segments": [],
            "categories_sizes": [],
            "default_left": [
              0,
              0,
              0,
              0,
              0,
              0,
              0,
              0,
              0,
              0,
              0,
              0,
              0,
              0,
              0,
              0,
              0,
              0,
              0,
              0,
              0,
              0,
              0,
              0,
              0,
              0,
              0,
              0,
              0,
              0,
              0
            ],
            "id": 2,
            "left_children": [
              1,
              3,
              5,
              7,
              9,
              11,
              13,
              15,
              17,
              19,
              21,
              23,
              25,
              27,
              29,
              -1,
              -1,
              -1,
              -1,
              -1,
              -1,
              -1,
              -1,
              -1,
              -1,
              -1,
              -1,
              -1,
              -1,
              -1,
              -1
            ],
            "loss_changes": [
              392.95282,
              95.33981,
              290.12747,
              76.36016,
              42.73291,
              168.67383,
              72.799774,
              76.34938,
              74.52545,
              34.277107,
              16.68457,
              153.02673,
              181.29367,
              41.31142,
              74.25008,
              0.0,
              0.0,
              0.0,
              0.0,
              0.0,
              0.0,
              0.0,
              0.0,
              0.0,
              0.0,
              0.0,
              0.0,
              0.0,
              0.0,
              0.0,
              0.0
            ],
            "parents": [
              2147483647,
              0,
              0,
              1,
              1,
              2,
              2,
              3,
              3,
              4,
              4,
              5,
              5,
              6,
              6,
              7,
              7,
              8,
              8,
              9,
              9,
              10,
              10,
              11,
              11,
              12,
              12,
              13,
              13,
              14,
              14
            ],
            "right_children": [
              2,
              4,
              6,
              8,
              10,
              12,
              14,
              16,
              18,
              20,
              22,
              24,
              26,
              28,
              30,
              -1,
              -1,
              -1,
              -1,
              -1,
              -1,
              -1,
              -1,
              -1,
              -1,
              -1,
              -1,
              -1,
              -1,
              -1,
              -1
            ],
            "split_conditions": [
              -0.4363282,
              0.5356309,
              1.2453654,
              -0.9283048,
              0.54011995,
              -0.97332907,
              -1.837249,
              0.6984602,
              -0.29238093,
              -2.090094,
              0.71134233,
              -0.19479959,
              -1.271925,
              2.2625272,
              -0.1620947,
              -0.0299042,
              0.048227742,
              0.015322814,
              -0.01342303,
              -0.07645365,
              -0.020372218,
              -0.056594957,
              -0.0042030206,
              0.015498282,
              -0.03528463,
              -0.022489473,
              0.017813707,
              0.060702473,
              -0.04224347,
              -0.06020841,
              -0.016094321
            ],
            "split_indices": [
              1172,
              274,
              1279,
              1081,
              1029,
              186,
              16,
              182,
              906,
              189,
              1748,
              1290,
              1174,
              1087,
              1274,
              0,
              0,
              0,
              0,
              0,
              0,
              0,
              0,
              0,
              0,
              0,
              0,
              0,
              0,
              0,
              0
            ],
            "split_type": [
              0,
              0,
              0,
              0,
              0,
              0,
              0,
              0,
              0,
              0,
              0,
              0,
              0,
              0,
              0,
              0,
              0,
              0,
              0,
              0,
              0,
              0,
              0,
              0,
              0,
              0,
              0,
              0,
              0,
              0,
              0
            ],
            "sum_hessian": [
              7203.4077,
              2163.0088,
              5040.3994,
              1563.439,
              599.5697,
              4613.9126,
              426.48666,
              595.5681,
              967.87085,
              381.57434,
              217.99539,
              604.0175,
              4009.895,
              43.46042,
              383.02625,
              563.34686,
              32.22126,
              355.58786,
              612.283,
              28.748158,
              352.82617,
              201.38487,
              16.610516,
              258.74472,
              345.27283,
              300.87466,
              3709.0205,
              30.105976,
              13.3544445,
              197.52478,
              185.50146
            ],
            "tree_param": {
              "num_deleted": "0",
              "num_feature": "2161",
              "num_nodes": "31",
              "size_leaf_vector": "1"
            }
          },
          {
            "base_weights": [
              -0.0012179622,
              -0.3447565,
              0.14652976,
              -0.22573557,
              -0.68308014,
              0.21313517,
              -0.6189834,
              -0.5154245,
              -0.0696415,
              -0.78451324,
              0.16437234,
              0.43383175,
              0.06133282,
              -0.2181939,
              -0.9999599,
              -0.027744463,
              0.05790947,
              -0.03787649,
              0.0008475072,
              -0.03039052,
              -0.06435465,
              -0.028817747,
              0.033420082,
              -0.022090605,
              0.026200255,
              -0.026567375,
              0.008259813,
              -0.028087476,
              0.01809804,
              -0.056747444,
              0.05534735
            ],
            "categories": [],
            "categories_nodes": [],
            "categories_segments": [],
            "categories_sizes": [],
            "default_left": [
              0,
              0,
              0,
              0,
              0,
              0,
              0,
              0,
              0,
              0,
              0,
              0,
              0,
              0,
              0,
              0,
              0,
              0,
              0,
              0,
              0,
              0,
              0,
              0,
              0,
              0,
              0,
              0,
              0,
              0,
              0
            ],
            "id": 3,
            "left_children": [
              1,
              3,
              5,
              7,
              9,
              11,
              13,
              15,
              17,
              19,
              21,
              23,
              25,
              27,
              29,
              -1,
              -1,
              -1,
              -1,
              -1,
              -1,
              -1,
              -1,
              -1,
              -1,
              -1,
              -1,
              -1,
              -1,
              -1,
              -1
            ],
            "loss_changes": [
              365.48984,
              87.04663,
              256.86542,
              72.470566,
              48.530518,
              155.18767,
              61.36116,
              37.71634,
              62.14872,
              43.89264,
              23.166044,
              149.29764,
              169.13014,
              39.63092,
              59.98053,
              0.0,
              0.0,
              0.0,
              0.0,
              0.0,
              0.0,
              0.0,
              0.0,
              0.0,
              0.0,
              0.0,
              0.0,
              0.0,
              0.0,
              0.0,
              0.0
            ],
            "parents": [
              2147483647,
              0,
              0,
              1,
              1,
              2,
              2,
              3,
              3,
              4,
              4,
              5,
              5,
              6,
              6,
              7,
              7,
              8,
              8,
              9,
              9,
              10,
              10,
              11,
              11,
              12,
              12,
              13,
              13,
              14,
              14
            ],
            "right_children": [
              2,
              4,
              6,
              8,
              10,
              12,
              14,
              16,
              18,
              20,
              22,
              24,
              26,
              28,
              30,
              -1,
              -1,
              -1,
              -1,
              -1,
              -1,
              -1,
              -1,
              -1,
              -1,
              -1,
              -1,
              -1,
              -1,
              -1,
              -1
            ],
            "split_conditions": [
              -0.4363282,
              0.09135529,
              1.2859931,
              -1.0075306,
              0.8434829,
              -0.27878064,
              -0.057215273,
              3.7995045,
              -0.32199743,
              1.047567,
              -0.63473094,
              -1.2761472,
              -0.97430974,
              0.38737097,
              1.4609548,
              -0.027744463,
              0.05790947,
              -0.03787649,
              0.0008475072,
              -0.03039052,
              -0.06435465,
              -0.028817747,
              0.033420082,
              -0.022090605,
              0.026200255,
              -0.026567375,
              0.008259813,
              -0.028087476,
              0.01809804,
              -0.056747444,
              0.05534735
            ],
            "split_indices": [
              1172,
              924,
              18,
              1081,
              1263,
              906,
              743,
              1173,
              742,
              759,
              375,
              183,
              907,
              188,
              22,
              0,
              0,
              0,
              0,
              0,
              0,
              0,
              0,
              0,
              0,
              0,
              0,
              0,
              0,
              0,
              0
            ],
            "split_type": [
              0,
              0,
              0,
              0,
              0,
              0,
              0,
              0,
              0,
              0,
              0,
              0,
              0,
              0,
              0,
              0,
              0,
              0,
              0,
              0,
              0,
              0,
              0,
              0,
              0,
              0,
              0,
              0,
              0,
              0,
              0
            ],
            "sum_hessian": [
              7198.7764,
              2164.534,
              5034.242,
              1602.4615,
              562.07245,
              4631.949,
              402.2929,
              560.30725,
              1042.1543,
              502.05487,
              60.017582,
              1886.8746,
              2745.0747,
              196.81506,
              205.47783,
              548.0523,
              12.254939,
              115.652985,
              926.5013,
              373.08917,
              128.96568,
              24.244333,
              35.773247,
              175.80367,
              1711.0709,
              408.7115,
              2336.3633,
              123.63356,
              73.18151,
              193.53915,
              11.938684
            ],
            "tree_param": {
              "num_deleted": "0",
              "num_feature": "2161",
              "num_nodes": "31",
              "size_leaf_vector": "1"
            }
          },
          {
            "base_weights": [
              -0.0013919143,
              0.115513355,
              -0.40742165,
              -0.16111654,
              0.3012376,
              -0.31331432,
              -1.0495721,
              0.009818995,
              -0.5116128,
              0.39338437,
              -0.084216796,
              -0.18731332,
              -0.74549,
              -1.1395575,
              0.2926875,
              -0.033146646,
              0.004530741,
              -0.03331184,
              0.016305966,
              -0.032137748,
              0.021401716,
              -0.008134336,
              0.04496257,
              -0.031824507,
              -0.0040234854,
              -0.06513869,
              -0.024806669,
              -0.012949765,
              -0.06376737,
              0.053901047,
              -0.053859986
            ],
            "categories": [],
            "categories_nodes": [],
            "categories_segments": [],
            "categories_sizes": [],
            "default_left": [
              0,
              0,
              0,
              0,
              0,
              0,
              0,
              0,
              0,
              0,
              0,
              0,
              0,
              0,
              0,
              0,
              0,
              0,
              0,
              0,
              0,
              0,
              0,
              0,
              0,
              0,
              0,
              0,
              0,
              0,
              0
            ],
            "id": 4,
            "left_children": [
              1,
              3,
              5,
              7,
              9,
              11,
              13,
              15,
              17,
              19,
              21,
              23,
              25,
              27,
              29,
              -1,
              -1,
              -1,
              -1,
              -1,
              -1,
              -1,
              -1,
              -1,
              -1,
              -1,
              -1,
              -1,
              -1,
              -1,
              -1
            ],
            "loss_changes": [
              341.66,
              287.18,
              96.91196,
              134.54416,
              118.811035,
              76.36195,
              25.12436,
              82.16039,
              95.57611,
              97.17862,
              50.002007,
              52.215298,
              43.376297,
              22.69423,
              15.890389,
              0.0,
              0.0,
              0.0,
              0.0,
              0.0,
              0.0,
              0.0,
              0.0,
              0.0,
              0.0,
              0.0,
              0.0,
              0.0,
              0.0,
              0.0,
              0.0
            ],
            "parents": [
              2147483647,
              0,
              0,
              1,
              1,
              2,
              2,
              3,
              3,
              4,
              4,
              5,
              5,
              6,
              6,
              7,
              7,
              8,
              8,
              9,
              9,
              10,
              10,
              11,
              11,
              12,
              12,
              13,
              13,
              14,
              14
            ],
            "right_children": [
              2,
              4,
              6,
              8,
              10,
              12,
              14,
              16,
              18,
              20,
              22,
              24,
              26,
              28,
              30,
              -1,
              -1,
              -1,
              -1,
              -1,
              -1,
              -1,
              -1,
              -1,
              -1,
              -1,
              -1,
              -1,
              -1,
              -1,
              -1
            ],
            "split_conditions": [
              0.07931796,
              -0.17292115,
              1.2778964,
              -0.018611271,
              0.7213568,
              1.4654521,
              1.3365372,
              -1.5046057,
              0.82563215,
              -1.3999221,
              0.84514916,
              -1.155635,
              0.029004112,
              -0.9854773,
              0.6826338,
              -0.033146646,
              0.004530741,
              -0.03331184,
              0.016305966,
              -0.032137748,
              0.021401716,
              -0.008134336,
              0.04496257,
              -0.031824507,
              -0.0040234854,
              -0.06513869,
              -0.024806669,
              -0.012949765,
              -0.06376737,
              0.053901047,
              -0.053859986
            ],
            "split_indices": [
              743,
              0,
              186,
              906,
              456,
              128,
              199,
              10,
              273,
              1262,
              1204,
              1081,
              85,
              1085,
              5,
              0,
              0,
              0,
              0,
              0,
              0,
              0,
              0,
              0,
              0,
              0,
              0,
              0,
              0,
              0,
              0
            ],
            "split_type": [
              0,
              0,
              0,
              0,
              0,
              0,
              0,
              0,
              0,
              0,
              0,
              0,
              0,
              0,
              0,
              0,
              0,
              0,
              0,
              0,
              0,
              0,
              0,
              0,
              0,
              0,
              0,
              0,
              0,
              0,
              0
            ],
            "sum_hessian": [
              7195.848,
              5587.7285,
              1608.1196,
              2244.6028,
              3343.126,
              1403.87,
              204.24966,
              1509.4313,
              735.1714,
              2698.098,
              645.028,
              1088.0747,
              315.79523,
              191.55855,
              12.69111,
              161.06955,
              1348.3618,
              620.7934,
              114.37794,
              86.74059,
              2611.3574,
              598.13776,
              46.890224,
              208.1294,
              879.9454,
              96.31581,
              219.47943,
              25.981667,
              165.57689,
              8.202063,
              4.489047
            ],
            "tree_param": {
              "num_deleted": "0",
              "num_feature": "2161",
              "num_nodes": "31",
              "size_leaf_vector": "1"
            }
          },
          {
            "base_weights": [
              0.0020372276,
              -0.22108306,
              0.19376665,
              -0.15812142,
              -0.8368522,
              0.2661906,
              -0.5662415,
              0.12480426,
              -0.2956995,
              -1.2888874,
              -0.68195224,
              -0.39057788,
              0.31268993,
              0.54837537,
              -0.7266249,
              -0.054529022,
              0.010382379,
              -0.01588264,
              0.050314344,
              -0.079475954,
              -0.041611932,
              0.014022306,
              -0.038589526,
              0.016169757,
              -0.031547956,
              -0.008496706,
              0.018994588,
              0.057517864,
              -0.05106728,
              -0.045251682,
              0.01404459
            ],
            "categories": [],
            "categories_nodes": [],
            "categories_segments": [],
            "categories_sizes": [],
            "default_left": [
              0,
              0,
              0,
              0,
              0,
              0,
              0,
              0,
              0,
              0,
              0,
              0,
              0,
              0,
              0,
              0,
              0,
              0,
              0,
              0,
              0,
              0,
              0,
              0,
              0,
              0,
              0,
              0,
              0,
              0,
              0
            ],
            "id": 5,
            "left_children": [
              1,
              3,
              5,
              7,
              9,
              11,
              13,
              15,
              17,
              19,
              21,
              23,
              25,
              27,
              29,
              -1,
              -1,
              -1,
              -1,
              -1,
              -1,
              -1,
              -1,
              -1,
              -1,
              -1,
              -1,
              -1,
              -1,
              -1,
              -1
            ],
            "loss_changes": [
              307.69153,
              128.74608,
              213.0802,
              117.474144,
              20.696503,
              108.00375,
              60.62198,
              99.68548,
              58.350037,
              9.318863,
              20.241913,
              40.366737,
              107.07916,
              41.757317,
              53.269196,
              0.0,
              0.0,
              0.0,
              0.0,
              0.0,
              0.0,
              0.0,
              0.0,
              0.0,
              0.0,
              0.0,
              0.0,
              0.0,
              0.0,
              0.0,
              0.0
            ],
            "parents": [
              2147483647,
              0,
              0,
              1,
              1,
              2,
              2,
              3,
              3,
              4,
              4,
              5,
              5,
              6,
              6,
              7,
              7,
              8,
              8,
              9,
              9,
              10,
              10,
              11,
              11,
              12,
              12,
              13,
              13,
              14,
              14
            ],
            "right_children": [
              2,
              4,
              6,
              8,
              10,
              12,
              14,
              16,
              18,
              20,
              22,
              24,
              26,
              28,
              30,
              -1,
              -1,
              -1,
              -1,
              -1,
              -1,
              -1,
              -1,
              -1,
              -1,
              -1,
              -1,
              -1,
              -1,
              -1,
              -1
            ],
            "split_conditions": [
              -0.02114934,
              1.4233067,
              1.2382911,
              -0.29382002,
              -0.8470989,
              -1.3285363,
              -1.836354,
              -1.9509372,
              1.9122618,
              0.37426522,
              -0.18991885,
              0.29635012,
              -1.0328407,
              2.2110991,
              0.6919992,
              -0.054529022,
              0.010382379,
              -0.01588264,
              0.050314344,
              -0.079475954,
              -0.041611932,
              0.014022306,
              -0.038589526,
              0.016169757,
              -0.031547956,
              -0.008496706,
              0.018994588,
              0.057517864,
              -0.05106728,
              -0.045251682,
              0.01404459
            ],
            "split_indices": [
              1172,
              738,
              18,
              906,
              276,
              183,
              286,
              0,
              1100,
              100,
              903,
              1103,
              907,
              1270,
              1193,
              0,
              0,
              0,
              0,
              0,
              0,
              0,
              0,
              0,
              0,
              0,
              0,
              0,
              0,
              0,
              0
            ],
            "split_type": [
              0,
              0,
              0,
              0,
              0,
              0,
              0,
              0,
              0,
              0,
              0,
              0,
              0,
              0,
              0,
              0,
              0,
              0,
              0,
              0,
              0,
              0,
              0,
              0,
              0,
              0,
              0,
              0,
              0,
              0,
              0
            ],
            "sum_hessian": [
              7190.629,
              3323.1934,
              3867.4355,
              3016.0618,
              307.13174,
              3531.551,
              335.88458,
              986.80865,
              2029.253,
              76.51676,
              230.61497,
              233.01324,
              3298.5378,
              41.946907,
              293.93768,
              62.1946,
              924.6141,
              1996.3479,
              32.905094,
              44.644512,
              31.872252,
              19.508387,
              211.1066,
              58.604015,
              174.40923,
              402.97296,
              2895.5647,
              30.5126,
              11.434307,
              249.80458,
              44.133102
            ],
            "tree_param": {
              "num_deleted": "0",
              "num_feature": "2161",
              "num_nodes": "31",
              "size_leaf_vector": "1"
            }
          },
          {
            "base_weights": [
              0.0025328042,
              0.097828634,
              -0.42332295,
              -0.15042034,
              0.26704025,
              -0.3409183,
              -0.9810919,
              0.011716121,
              -0.48233432,
              0.31127164,
              -0.39334336,
              -0.40830085,
              0.46420908,
              -1.2551063,
              -0.6108457,
              0.0040540644,
              -0.034516294,
              -0.031017939,
              0.012435135,
              0.016590718,
              -0.05340431,
              -0.03972513,
              0.028462738,
              -0.013483641,
              -0.038258445,
              -0.009083485,
              0.057420757,
              0.008539662,
              -0.06696471,
              -0.037932057,
              0.061130714
            ],
            "categories": [],
            "categories_nodes": [],
            "categories_segments": [],
            "categories_sizes": [],
            "default_left": [
              0,
              0,
              0,
              0,
              0,
              0,
              0,
              0,
              0,
              0,
              0,
              0,
              0,
              0,
              0,
              0,
              0,
              0,
              0,
              0,
              0,
              0,
              0,
              0,
              0,
              0,
              0,
              0,
              0,
              0,
              0
            ],
            "id": 6,
            "left_children": [
              1,
              3,
              5,
              7,
              9,
              11,
              13,
              15,
              17,
              19,
              21,
              23,
              25,
              27,
              29,
              -1,
              -1,
              -1,
              -1,
              -1,
              -1,
              -1,
              -1,
              -1,
              -1,
              -1,
              -1,
              -1,
              -1,
              -1,
              -1
            ],
            "loss_changes": [
              291.42075,
              246.52971,
              60.018707,
              128.03766,
              102.057724,
              62.339996,
              16.32724,
              77.93782,
              78.936905,
              93.04828,
              85.2166,
              52.117996,
              39.512764,
              11.738632,
              20.874212,
              0.0,
              0.0,
              0.0,
              0.0,
              0.0,
              0.0,
              0.0,
              0.0,
              0.0,
              0.0,
              0.0,
              0.0,
              0.0,
              0.0,
              0.0,
              0.0
            ],
            "parents": [
              2147483647,
              0,
              0,
              1,
              1,
              2,
              2,
              3,
              3,
              4,
              4,
              5,
              5,
              6,
              6,
              7,
              7,
              8,
              8,
              9,
              9,
              10,
              10,
              11,
              11,
              12,
              12,
              13,
              13,
              14,
              14
            ],
            "right_children": [
              2,
              4,
              6,
              8,
              10,
              12,
              14,
              16,
              18,
              20,
              22,
              24,
              26,
              28,
              30,
              -1,
              -1,
              -1,
              -1,
              -1,
              -1,
              -1,
              -1,
              -1,
              -1,
              -1,
              -1,
              -1,
              -1,
              -1,
              -1
            ],
            "split_conditions": [
              -0.011324474,
              -0.17292115,
              1.3346235,
              -0.018611271,
              1.4841112,
              1.7793208,
              0.04928817,
              0.90637857,
              0.82563215,
              2.3452199,
              0.3669984,
              0.30188423,
              0.59999585,
              -1.836354,
              1.6003044,
              0.0040540644,
              -0.034516294,
              -0.031017939,
              0.012435135,
              0.016590718,
              -0.05340431,
              -0.03972513,
              0.028462738,
              -0.013483641,
              -0.038258445,
              -0.009083485,
              0.057420757,
              0.008539662,
              -0.06696471,
              -0.037932057,
              0.061130714
            ],
            "split_indices": [
              953,
              0,
              189,
              906,
              378,
              1083,
              286,
              468,
              273,
              1193,
              1089,
              773,
              1264,
              286,
              188,
              0,
              0,
              0,
              0,
              0,
              0,
              0,
              0,
              0,
              0,
              0,
              0,
              0,
              0,
              0,
              0
            ],
            "split_type": [
              0,
              0,
              0,
              0,
              0,
              0,
              0,
              0,
              0,
              0,
              0,
              0,
              0,
              0,
              0,
              0,
              0,
              0,
              0,
              0,
              0,
              0,
              0,
              0,
              0,
              0,
              0,
              0,
              0,
              0,
              0
            ],
            "sum_hessian": [
              7178.965,
              5866.8755,
              1312.0892,
              2378.0981,
              3488.7773,
              1144.5979,
              167.4914,
              1598.3069,
              779.7913,
              3270.2688,
              218.50848,
              1056.6572,
              87.94067,
              94.88115,
              72.610245,
              1455.3916,
              142.91527,
              656.0721,
              123.7192,
              3223.0278,
              47.240963,
              154.35588,
              64.15262,
              762.294,
              294.36316,
              45.615185,
              42.325478,
              5.2322984,
              89.64885,
              67.736244,
              4.874003
            ],
            "tree_param": {
              "num_deleted": "0",
              "num_feature": "2161",
              "num_nodes": "31",
              "size_leaf_vector": "1"
            }
          },
          {
            "base_weights": [
              0.0012779473,
              0.10519511,
              -0.36274406,
              -0.19981456,
              0.24100602,
              -0.2773682,
              -0.9221416,
              -0.26499167,
              0.46391946,
              0.21861671,
              1.3275741,
              -0.49744633,
              -0.030179294,
              -1.256156,
              -0.5705502,
              -0.007489355,
              -0.036625627,
              0.043859724,
              -0.030827073,
              -0.050429285,
              0.012087194,
              0.07641378,
              -0.07987367,
              -0.05449418,
              -0.018688176,
              -0.037249293,
              0.0062053744,
              0.0013426703,
              -0.06643545,
              -0.037179276,
              0.022389682
            ],
            "categories": [],
            "categories_nodes": [],
            "categories_segments": [],
            "categories_sizes": [],
            "default_left": [
              0,
              0,
              0,
              0,
              0,
              0,
              0,
              0,
              0,
              0,
              0,
              0,
              0,
              0,
              0,
              0,
              0,
              0,
              0,
              0,
              0,
              0,
              0,
              0,
              0,
              0,
              0,
              0,
              0,
              0,
              0
            ],
            "id": 7,
            "left_children": [
              1,
              3,
              5,
              7,
              9,
              11,
              13,
              15,
              17,
              19,
              21,
              23,
              25,
              27,
              29,
              -1,
              -1,
              -1,
              -1,
              -1,
              -1,
              -1,
              -1,
              -1,
              -1,
              -1,
              -1,
              -1,
              -1,
              -1,
              -1
            ],
            "loss_changes": [
              271.77722,
              231.56564,
              75.94371,
              74.63651,
              93.798096,
              75.36634,
              24.042862,
              84.40117,
              69.47569,
              107.82994,
              48.16597,
              53.300217,
              72.18576,
              10.022614,
              18.754993,
              0.0,
              0.0,
              0.0,
              0.0,
              0.0,
              0.0,
              0.0,
              0.0,
              0.0,
              0.0,
              0.0,
              0.0,
              0.0,
              0.0,
              0.0,
              0.0
            ],
            "parents": [
              2147483647,
              0,
              0,
              1,
              1,
              2,
              2,
              3,
              3,
              4,
              4,
              5,
              5,
              6,
              6,
              7,
              7,
              8,
              8,
              9,
              9,
              10,
              10,
              11,
              11,
              12,
              12,
              13,
              13,
              14,
              14
            ],
            "right_children": [
              2,
              4,
              6,
              8,
              10,
              12,
              14,
              16,
              18,
              20,
              22,
              24,
              26,
              28,
              30,
              -1,
              -1,
              -1,
              -1,
              -1,
              -1,
              -1,
              -1,
              -1,
              -1,
              -1,
              -1,
              -1,
              -1,
              -1,
              -1
            ],
            "split_conditions": [
              0.07931796,
              -0.5344518,
              1.2838488,
              0.9246888,
              2.1883702,
              -0.13645303,
              -0.5306038,
              -0.06425827,
              1.4408844,
              -2.1637864,
              1.151715,
              -0.5362532,
              -1.1297891,
              -1.8996546,
              1.7712045,
              -0.007489355,
              -0.036625627,
              0.043859724,
              -0.030827073,
              -0.050429285,
              0.012087194,
              0.07641378,
              -0.07987367,
              -0.05449418,
              -0.018688176,
              -0.037249293,
              0.0062053744,
              0.0013426703,
              -0.06643545,
              -0.037179276,
              0.022389682
            ],
            "split_indices": [
              743,
              1,
              1087,
              363,
              183,
              1176,
              1100,
              924,
              1107,
              1098,
              19,
              2003,
              1174,
              286,
              909,
              0,
              0,
              0,
              0,
              0,
              0,
              0,
              0,
              0,
              0,
              0,
              0,
              0,
              0,
              0,
              0
            ],
            "split_type": [
              0,
              0,
              0,
              0,
              0,
              0,
              0,
              0,
              0,
              0,
              0,
              0,
              0,
              0,
              0,
              0,
              0,
              0,
              0,
              0,
              0,
              0,
              0,
              0,
              0,
              0,
              0,
              0,
              0,
              0,
              0
            ],
            "sum_hessian": [
              7182.5166,
              5588.019,
              1594.4977,
              1721.4484,
              3866.5706,
              1384.6644,
              209.83319,
              1568.0685,
              153.37987,
              3789.6833,
              76.88722,
              731.9657,
              652.6988,
              106.28701,
              103.54618,
              1259.1213,
              308.94714,
              111.080025,
              42.299847,
              69.309074,
              3720.3743,
              72.397224,
              4.489999,
              125.070366,
              606.8953,
              115.19143,
              537.5074,
              5.7224545,
              100.56456,
              88.73781,
              14.808373
            ],
            "tree_param": {
              "num_deleted": "0",
              "num_feature": "2161",
              "num_nodes": "31",
              "size_leaf_vector": "1"
            }
          },
          {
            "base_weights": [
              -0.0027076958,
              0.09339474,
              -0.3476861,
              -0.14387858,
              0.2525529,
              -0.27110857,
              -0.8937098,
              -0.5332607,
              -0.015853329,
              0.33227032,
              -0.08015645,
              -0.15730901,
              -0.7060066,
              -1.1766498,
              -0.51357836,
              -0.05701952,
              -0.016710348,
              -0.007172983,
              0.037796054,
              -0.019063802,
              0.018927999,
              0.04722398,
              -0.007881011,
              -0.027501503,
              -0.001847609,
              -0.024135875,
              -0.06507219,
              0.0050393166,
              -0.062246848,
              -0.034512084,
              0.0564277
            ],
            "categories": [],
            "categories_nodes": [],
            "categories_segments": [],
            "categories_sizes": [],
            "default_left": [
              0,
              0,
              0,
              0,
              0,
              0,
              0,
              0,
              0,
              0,
              0,
              0,
              0,
              0,
              0,
              0,
              0,
              0,
              0,
              0,
              0,
              0,
              0,
              0,
              0,
              0,
              0,
              0,
              0,
              0,
              0
            ],
            "id": 8,
            "left_children": [
              1,
              3,
              5,
              7,
              9,
              11,
              13,
              15,
              17,
              19,
              21,
              23,
              25,
              27,
              29,
              -1,
              -1,
              -1,
              -1,
              -1,
              -1,
              -1,
              -1,
              -1,
              -1,
              -1,
              -1,
              -1,
              -1,
              -1,
              -1
            ],
            "loss_changes": [
              238.14642,
              212.19995,
              65.198166,
              112.46454,
              89.22136,
              67.890175,
              20.05281,
              67.08215,
              167.42773,
              89.758484,
              51.806366,
              51.515713,
              37.22148,
              9.662827,
              25.069302,
              0.0,
              0.0,
              0.0,
              0.0,
              0.0,
              0.0,
              0.0,
              0.0,
              0.0,
              0.0,
              0.0,
              0.0,
              0.0,
              0.0,
              0.0,
              0.0
            ],
            "parents": [
              2147483647,
              0,
              0,
              1,
              1,
              2,
              2,
              3,
              3,
              4,
              4,
              5,
              5,
              6,
              6,
              7,
              7,
              8,
              8,
              9,
              9,
              10,
              10,
              11,
              11,
              12,
              12,
              13,
              13,
              14,
              14
            ],
            "right_children": [
              2,
              4,
              6,
              8,
              10,
              12,
              14,
              16,
              18,
              20,
              22,
              24,
              26,
              28,
              30,
              -1,
              -1,
              -1,
              -1,
              -1,
              -1,
              -1,
              -1,
              -1,
              -1,
              -1,
              -1,
              -1,
              -1,
              -1,
              -1
            ],
            "split_conditions": [
              0.08439893,
              -0.17292115,
              1.3346235,
              -0.49894458,
              0.7213568,
              0.20196427,
              -0.14746307,
              -1.0073397,
              0.6648875,
              -1.3086834,
              -0.821573,
              -1.0075306,
              1.4793562,
              -1.836354,
              1.7247878,
              -0.05701952,
              -0.016710348,
              -0.007172983,
              0.037796054,
              -0.019063802,
              0.018927999,
              0.04722398,
              -0.007881011,
              -0.027501503,
              -0.001847609,
              -0.024135875,
              -0.06507219,
              0.0050393166,
              -0.062246848,
              -0.034512084,
              0.0564277
            ],
            "split_indices": [
              743,
              0,
              189,
              1177,
              456,
              862,
              286,
              188,
              273,
              3,
              724,
              1081,
              924,
              286,
              458,
              0,
              0,
              0,
              0,
              0,
              0,
              0,
              0,
              0,
              0,
              0,
              0,
              0,
              0,
              0,
              0
            ],
            "split_type": [
              0,
              0,
              0,
              0,
              0,
              0,
              0,
              0,
              0,
              0,
              0,
              0,
              0,
              0,
              0,
              0,
              0,
              0,
              0,
              0,
              0,
              0,
              0,
              0,
              0,
              0,
              0,
              0,
              0,
              0,
              0
            ],
            "sum_hessian": [
              7181.2163,
              5617.1475,
              1564.0688,
              2255.1946,
              3361.9531,
              1373.0068,
              191.06201,
              557.2333,
              1697.9612,
              2712.1267,
              649.8264,
              1089.3253,
              283.68152,
              108.33245,
              82.72955,
              136.41812,
              420.8152,
              1457.7489,
              240.21228,
              164.78354,
              2547.343,
              44.887928,
              604.9385,
              254.69441,
              834.6309,
              207.63065,
              76.05087,
              5.4730597,
              102.85939,
              75.217224,
              7.512327
            ],
            "tree_param": {
              "num_deleted": "0",
              "num_feature": "2161",
              "num_nodes": "31",
              "size_leaf_vector": "1"
            }
          },
          {
            "base_weights": [
              -0.0001446642,
              0.07813905,
              -0.40547568,
              -0.15160793,
              0.22091085,
              -0.4543178,
              0.38323337,
              0.02478597,
              -0.47594705,
              0.20014933,
              1.3723367,
              -0.7374526,
              -0.29007298,
              -1.0040264,
              0.6792254,
              -0.036507305,
              0.0049494854,
              -0.030088985,
              0.005275315,
              0.01819847,
              0.0016008572,
              0.076973096,
              -0.054111928,
              -0.028695825,
              -0.06524679,
              -0.008189858,
              -0.036814686,
              -0.006684933,
              -0.06623799,
              0.0670151,
              0.015732152
            ],
            "categories": [],
            "categories_nodes": [],
            "categories_segments": [],
            "categories_sizes": [],
            "default_left": [
              0,
              0,
              0,
              0,
              0,
              0,
              0,
              0,
              0,
              0,
              0,
              0,
              0,
              0,
              0,
              0,
              0,
              0,
              0,
              0,
              0,
              0,
              0,
              0,
              0,
              0,
              0,
              0,
              0,
              0,
              0
            ],
            "id": 9,
            "left_children": [
              1,
              3,
              5,
              7,
              9,
              11,
              13,
              15,
              17,
              19,
              21,
              23,
              25,
              27,
              29,
              -1,
              -1,
              -1,
              -1,
              -1,
              -1,
              -1,
              -1,
              -1,
              -1,
              -1,
              -1,
              -1,
              -1,
              -1,
              -1
            ],
            "loss_changes": [
              227.88715,
              197.47626,
              44.957993,
              132.0312,
              88.48041,
              50.717148,
              28.742283,
              83.85562,
              59.54294,
              100.4718,
              28.57209,
              36.50557,
              39.02797,
              3.2899036,
              13.296141,
              0.0,
              0.0,
              0.0,
              0.0,
              0.0,
              0.0,
              0.0,
              0.0,
              0.0,
              0.0,
              0.0,
              0.0,
              0.0,
              0.0,
              0.0,
              0.0
            ],
            "parents": [
              2147483647,
              0,
              0,
              1,
              1,
              2,
              2,
              3,
              3,
              4,
              4,
              5,
              5,
              6,
              6,
              7,
              7,
              8,
              8,
              9,
              9,
              10,
              10,
              11,
              11,
              12,
              12,
              13,
              13,
              14,
              14
            ],
            "right_children": [
              2,
              4,
              6,
              8,
              10,
              12,
              14,
              16,
              18,
              20,
              22,
              24,
              26,
              28,
              30,
              -1,
              -1,
              -1,
              -1,
              -1,
              -1,
              -1,
              -1,
              -1,
              -1,
              -1,
              -1,
              -1,
              -1,
              -1,
              -1
            ],
            "split_conditions": [
              0.07298913,
              -0.2390224,
              1.1826746,
              -0.04944669,
              2.2093246,
              0.04505984,
              -1.1621572,
              -1.5377655,
              0.75778323,
              0.019081246,
              1.3743985,
              1.4127284,
              0.96444476,
              1.0024849,
              -0.39591032,
              -0.036507305,
              0.0049494854,
              -0.030088985,
              0.005275315,
              0.01819847,
              0.0016008572,
              0.076973096,
              -0.054111928,
              -0.028695825,
              -0.06524679,
              -0.008189858,
              -0.036814686,
              -0.006684933,
              -0.06623799,
              0.0670151,
              0.015732152
            ],
            "split_indices": [
              142,
              1081,
              182,
              906,
              1174,
              2120,
              479,
              1088,
              273,
              1290,
              7,
              924,
              276,
              377,
              1085,
              0,
              0,
              0,
              0,
              0,
              0,
              0,
              0,
              0,
              0,
              0,
              0,
              0,
              0,
              0,
              0
            ],
            "split_type": [
              0,
              0,
              0,
              0,
              0,
              0,
              0,
              0,
              0,
              0,
              0,
              0,
              0,
              0,
              0,
              0,
              0,
              0,
              0,
              0,
              0,
              0,
              0,
              0,
              0,
              0,
              0,
              0,
              0,
              0,
              0
            ],
            "sum_hessian": [
              7179.888,
              6018.342,
              1161.5469,
              2306.5698,
              3711.7717,
              1094.2101,
              67.33684,
              1494.6295,
              811.9403,
              3647.1826,
              64.58902,
              400.432,
              693.778,
              11.420236,
              55.9166,
              132.97118,
              1361.6584,
              667.45996,
              144.48033,
              1846.6902,
              1800.4924,
              60.820724,
              3.768294,
              312.41284,
              88.01915,
              541.81665,
              151.9614,
              3.4568195,
              7.963416,
              18.924894,
              36.991707
            ],
            "tree_param": {
              "num_deleted": "0",
              "num_feature": "2161",
              "num_nodes": "31",
              "size_leaf_vector": "1"
            }
          },
          {
            "base_weights": [
              -0.0039548543,
              -0.27489248,
              0.11343488,
              -0.16558851,
              -0.56061864,
              0.16487846,
              -0.52061695,
              -0.83229464,
              -0.11097674,
              -1.4581554,
              -0.5004959,
              0.36987686,
              0.023749089,
              -0.5794749,
              1.4366832,
              -0.046748858,
              0.05207125,
              -0.033653647,
              -0.0022474187,
              -0.07827474,
              -0.017866364,
              -0.018262694,
              -0.042875722,
              -0.02006702,
              0.02245005,
              -0.023627616,
              0.005570986,
              -0.009657165,
              -0.048497576,
              0.01674392,
              0.09023047
            ],
            "categories": [],
            "categories_nodes": [],
            "categories_segments": [],
            "categories_sizes": [],
            "default_left": [
              0,
              0,
              0,
              0,
              0,
              0,
              0,
              0,
              0,
              0,
              0,
              0,
              0,
              0,
              0,
              0,
              0,
              0,
              0,
              0,
              0,
              0,
              0,
              0,
              0,
              0,
              0,
              0,
              0,
              0,
              0
            ],
            "id": 10,
            "left_children": [
              1,
              3,
              5,
              7,
              9,
              11,
              13,
              15,
              17,
              19,
              21,
              23,
              25,
              27,
              29,
              -1,
              -1,
              -1,
              -1,
              -1,
              -1,
              -1,
              -1,
              -1,
              -1,
              -1,
              -1,
              -1,
              -1,
              -1,
              -1
            ],
            "loss_changes": [
              227.81267,
              67.53038,
              163.0934,
              56.982334,
              31.577637,
              133.74661,
              44.06597,
              23.77819,
              53.7865,
              3.8202286,
              26.85318,
              115.20575,
              119.23899,
              54.87993,
              3.9534187,
              0.0,
              0.0,
              0.0,
              0.0,
              0.0,
              0.0,
              0.0,
              0.0,
              0.0,
              0.0,
              0.0,
              0.0,
              0.0,
              0.0,
              0.0,
              0.0
            ],
            "parents": [
              2147483647,
              0,
              0,
              1,
              1,
              2,
              2,
              3,
              3,
              4,
              4,
              5,
              5,
              6,
              6,
              7,
              7,
              8,
              8,
              9,
              9,
              10,
              10,
              11,
              11,
              12,
              12,
              13,
              13,
              14,
              14
            ],
            "right_children": [
              2,
              4,
              6,
              8,
              10,
              12,
              14,
              16,
              18,
              20,
              22,
              24,
              26,
              28,
              30,
              -1,
              -1,
              -1,
              -1,
              -1,
              -1,
              -1,
              -1,
              -1,
              -1,
              -1,
              -1,
              -1,
              -1,
              -1,
              -1
            ],
            "split_conditions": [
              -0.4363282,
              0.5356309,
              1.3360789,
              -2.1946256,
              -2.7673633,
              -0.27878064,
              1.4609548,
              0.6984602,
              -0.18761918,
              1.1101446,
              1.028679,
              -1.271925,
              -0.97430974,
              -0.057215273,
              -0.4421401,
              -0.046748858,
              0.05207125,
              -0.033653647,
              -0.0022474187,
              -0.07827474,
              -0.017866364,
              -0.018262694,
              -0.042875722,
              -0.02006702,
              0.02245005,
              -0.023627616,
              0.005570986,
              -0.009657165,
              -0.048497576,
              0.01674392,
              0.09023047
            ],
            "split_indices": [
              1172,
              274,
              1099,
              0,
              1093,
              906,
              22,
              182,
              767,
              1562,
              729,
              1174,
              907,
              743,
              1541,
              0,
              0,
              0,
              0,
              0,
              0,
              0,
              0,
              0,
              0,
              0,
              0,
              0,
              0,
              0,
              0
            ],
            "split_type": [
              0,
              0,
              0,
              0,
              0,
              0,
              0,
              0,
              0,
              0,
              0,
              0,
              0,
              0,
              0,
              0,
              0,
              0,
              0,
              0,
              0,
              0,
              0,
              0,
              0,
              0,
              0,
              0,
              0,
              0,
              0
            ],
            "sum_hessian": [
              7160.7476,
              2164.2585,
              4996.4893,
              1566.5554,
              597.70306,
              4622.208,
              374.28128,
              117.5275,
              1449.028,
              36.064484,
              561.63855,
              1883.9879,
              2738.2197,
              364.0382,
              10.243057,
              111.896416,
              5.631078,
              151.35518,
              1297.6727,
              32.47574,
              3.5887458,
              408.80307,
              152.8355,
              174.92587,
              1709.0621,
              410.42474,
              2327.7952,
              183.74164,
              180.29659,
              3.0423899,
              7.2006674
            ],
            "tree_param": {
              "num_deleted": "0",
              "num_feature": "2161",
              "num_nodes": "31",
              "size_leaf_vector": "1"
            }
          },
          {
            "base_weights": [
              0.0025177363,
              0.10359232,
              -0.28473413,
              -0.15587029,
              0.21775565,
              -0.20077445,
              -0.64624876,
              -0.048051693,
              -0.5305696,
              0.26363465,
              -0.3557921,
              -0.12011987,
              -0.5986431,
              -1.2760688,
              -0.47061244,
              -0.016834209,
              0.006226431,
              -0.02899156,
              0.02965129,
              0.007371589,
              0.025830958,
              -0.03201869,
              0.011604703,
              0.0073901336,
              -0.013114217,
              -0.053454865,
              -0.009205541,
              -0.06861111,
              0.0033965816,
              0.019658266,
              -0.028478175
            ],
            "categories": [],
            "categories_nodes": [],
            "categories_segments": [],
            "categories_sizes": [],
            "default_left": [
              0,
              0,
              0,
              0,
              0,
              0,
              0,
              0,
              0,
              0,
              0,
              0,
              0,
              0,
              0,
              0,
              0,
              0,
              0,
              0,
              0,
              0,
              0,
              0,
              0,
              0,
              0,
              0,
              0,
              0,
              0
            ],
            "id": 11,
            "left_children": [
              1,
              3,
              5,
              7,
              9,
              11,
              13,
              15,
              17,
              19,
              21,
              23,
              25,
              27,
              29,
              -1,
              -1,
              -1,
              -1,
              -1,
              -1,
              -1,
              -1,
              -1,
              -1,
              -1,
              -1,
              -1,
              -1,
              -1,
              -1
            ],
            "loss_changes": [
              207.41277,
              156.56354,
              56.30841,
              65.23013,
              96.66904,
              48.397263,
              38.115967,
              62.57761,
              20.31578,
              99.84236,
              45.69837,
              47.920097,
              49.401825,
              9.880547,
              23.751076,
              0.0,
              0.0,
              0.0,
              0.0,
              0.0,
              0.0,
              0.0,
              0.0,
              0.0,
              0.0,
              0.0,
              0.0,
              0.0,
              0.0,
              0.0,
              0.0
            ],
            "parents": [
              2147483647,
              0,
              0,
              1,
              1,
              2,
              2,
              3,
              3,
              4,
              4,
              5,
              5,
              6,
              6,
              7,
              7,
              8,
              8,
              9,
              9,
              10,
              10,
              11,
              11,
              12,
              12,
              13,
              13,
              14,
              14
            ],
            "right_children": [
              2,
              4,
              6,
              8,
              10,
              12,
              14,
              16,
              18,
              20,
              22,
              24,
              26,
              28,
              30,
              -1,
              -1,
              -1,
              -1,
              -1,
              -1,
              -1,
              -1,
              -1,
              -1,
              -1,
              -1,
              -1,
              -1,
              -1,
              -1
            ],
            "split_conditions": [
              -0.009471461,
              -0.5344518,
              1.4654521,
              0.17400451,
              1.2382911,
              0.9661532,
              -0.07460535,
              -0.4414289,
              1.8052397,
              0.6659042,
              0.38737097,
              -0.27878064,
              -0.29561347,
              1.659672,
              -0.7997617,
              -0.016834209,
              0.006226431,
              -0.02899156,
              0.02965129,
              0.007371589,
              0.025830958,
              -0.03201869,
              0.011604703,
              0.0073901336,
              -0.013114217,
              -0.053454865,
              -0.009205541,
              -0.06861111,
              0.0033965816,
              0.019658266,
              -0.028478175
            ],
            "split_indices": [
              77,
              1,
              128,
              906,
              18,
              1087,
              85,
              753,
              273,
              1081,
              188,
              906,
              1199,
              475,
              2027,
              0,
              0,
              0,
              0,
              0,
              0,
              0,
              0,
              0,
              0,
              0,
              0,
              0,
              0,
              0,
              0
            ],
            "split_type": [
              0,
              0,
              0,
              0,
              0,
              0,
              0,
              0,
              0,
              0,
              0,
              0,
              0,
              0,
              0,
              0,
              0,
              0,
              0,
              0,
              0,
              0,
              0,
              0,
              0,
              0,
              0,
              0,
              0,
              0,
              0
            ],
            "sum_hessian": [
              7141.807,
              5283.3926,
              1858.4146,
              1614.2562,
              3669.1362,
              1509.4167,
              348.99786,
              1254.4269,
              359.8293,
              3397.8752,
              271.26114,
              1256.0886,
              253.32806,
              74.73562,
              274.26227,
              469.03574,
              785.3912,
              345.17963,
              14.649695,
              2329.468,
              1068.4072,
              182.72096,
              88.54017,
              435.4333,
              820.65533,
              117.92057,
              135.40749,
              69.72622,
              5.0093966,
              27.883585,
              246.37866
            ],
            "tree_param": {
              "num_deleted": "0",
              "num_feature": "2161",
              "num_nodes": "31",
              "size_leaf_vector": "1"
            }
          },
          {
            "base_weights": [
              -0.00075528043,
              -0.2513722,
              0.10688556,
              -0.13366732,
              -0.4872961,
              0.15722261,
              -0.44914937,
              -0.67400163,
              -0.06629212,
              -0.5950338,
              0.038709894,
              -0.36522344,
              0.20044275,
              0.5246897,
              -0.5733164,
              -0.048997387,
              -0.0152614135,
              0.0051033087,
              -0.021226512,
              -0.012098683,
              -0.035982676,
              0.052587796,
              -0.02857388,
              -0.0024218592,
              -0.034824383,
              0.020612901,
              0.0029494371,
              0.055470794,
              -0.03691682,
              -0.047856566,
              -0.008346135
            ],
            "categories": [],
            "categories_nodes": [],
            "categories_segments": [],
            "categories_sizes": [],
            "default_left": [
              0,
              0,
              0,
              0,
              0,
              0,
              0,
              0,
              0,
              0,
              0,
              0,
              0,
              0,
              0,
              0,
              0,
              0,
              0,
              0,
              0,
              0,
              0,
              0,
              0,
              0,
              0,
              0,
              0,
              0,
              0
            ],
            "id": 12,
            "left_children": [
              1,
              3,
              5,
              7,
              9,
              11,
              13,
              15,
              17,
              19,
              21,
              23,
              25,
              27,
              29,
              -1,
              -1,
              -1,
              -1,
              -1,
              -1,
              -1,
              -1,
              -1,
              -1,
              -1,
              -1,
              -1,
              -1,
              -1,
              -1
            ],
            "loss_changes": [
              192.7236,
              59.541595,
              139.9496,
              52.138836,
              40.490326,
              103.56914,
              50.497627,
              17.618553,
              76.977875,
              25.90561,
              76.22135,
              36.753887,
              126.833084,
              35.874348,
              57.34411,
              0.0,
              0.0,
              0.0,
              0.0,
              0.0,
              0.0,
              0.0,
              0.0,
              0.0,
              0.0,
              0.0,
              0.0,
              0.0,
              0.0,
              0.0,
              0.0
            ],
            "parents": [
              2147483647,
              0,
              0,
              1,
              1,
              2,
              2,
              3,
              3,
              4,
              4,
              5,
              5,
              6,
              6,
              7,
              7,
              8,
              8,
              9,
              9,
              10,
              10,
              11,
              11,
              12,
              12,
              13,
              13,
              14,
              14
            ],
            "right_children": [
              2,
              4,
              6,
              8,
              10,
              12,
              14,
              16,
              18,
              20,
              22,
              24,
              26,
              28,
              30,
              -1,
              -1,
              -1,
              -1,
              -1,
              -1,
              -1,
              -1,
              -1,
              -1,
              -1,
              -1,
              -1,
              -1,
              -1,
              -1
            ],
            "split_conditions": [
              -0.4363282,
              -0.09674606,
              1.2453654,
              -0.18761918,
              1.5298445,
              -1.271925,
              -1.7994429,
              -0.30850133,
              0.06418493,
              -0.56218356,
              0.31222355,
              0.7432906,
              -0.27878064,
              2.2625272,
              -0.1620947,
              -0.048997387,
              -0.0152614135,
              0.0051033087,
              -0.021226512,
              -0.012098683,
              -0.035982676,
              0.052587796,
              -0.02857388,
              -0.0024218592,
              -0.034824383,
              0.020612901,
              0.0029494371,
              0.055470794,
              -0.03691682,
              -0.047856566,
              -0.008346135
            ],
            "split_indices": [
              1172,
              924,
              1279,
              767,
              273,
              1174,
              16,
              184,
              1646,
              918,
              289,
              1283,
              906,
              1087,
              1274,
              0,
              0,
              0,
              0,
              0,
              0,
              0,
              0,
              0,
              0,
              0,
              0,
              0,
              0,
              0,
              0
            ],
            "split_type": [
              0,
              0,
              0,
              0,
              0,
              0,
              0,
              0,
              0,
              0,
              0,
              0,
              0,
              0,
              0,
              0,
              0,
              0,
              0,
              0,
              0,
              0,
              0,
              0,
              0,
              0,
              0,
              0,
              0,
              0,
              0
            ],
            "sum_hessian": [
              7142.103,
              2145.4895,
              4996.6133,
              1432.4113,
              713.0782,
              4582.485,
              414.1286,
              157.80956,
              1274.6017,
              591.74457,
              121.33365,
              349.55878,
              4232.9263,
              46.466583,
              367.66202,
              85.34625,
              72.463295,
              867.58484,
              407.01685,
              155.14494,
              436.5996,
              45.338333,
              75.995316,
              179.27002,
              170.28876,
              1694.1566,
              2538.7695,
              31.845242,
              14.621342,
              188.38669,
              179.27533
            ],
            "tree_param": {
              "num_deleted": "0",
              "num_feature": "2161",
              "num_nodes": "31",
              "size_leaf_vector": "1"
            }
          },
          {
            "base_weights": [
              0.000629364,
              -0.1662201,
              0.1482131,
              0.059886895,
              -0.27952504,
              0.20308268,
              -0.44191086,
              -1.2596112,
              0.11658111,
              -0.21657646,
              -0.6612427,
              0.22366916,
              -1.0809927,
              0.49385223,
              -0.5813711,
              -0.067664236,
              0.0022932095,
              0.016126847,
              -0.012286737,
              -0.04559676,
              -0.008593215,
              0.019078938,
              -0.03611482,
              0.013007455,
              -0.020126114,
              -0.03227834,
              -0.06773477,
              0.06182267,
              -0.025501033,
              -0.047193225,
              -0.009091454
            ],
            "categories": [],
            "categories_nodes": [],
            "categories_segments": [],
            "categories_sizes": [],
            "default_left": [
              0,
              0,
              0,
              0,
              0,
              0,
              0,
              0,
              0,
              0,
              0,
              0,
              0,
              0,
              0,
              0,
              0,
              0,
              0,
              0,
              0,
              0,
              0,
              0,
              0,
              0,
              0,
              0,
              0,
              0,
              0
            ],
            "id": 13,
            "left_children": [
              1,
              3,
              5,
              7,
              9,
              11,
              13,
              15,
              17,
              19,
              21,
              23,
              25,
              27,
              29,
              -1,
              -1,
              -1,
              -1,
              -1,
              -1,
              -1,
              -1,
              -1,
              -1,
              -1,
              -1,
              -1,
              -1,
              -1,
              -1
            ],
            "loss_changes": [
              175.44447,
